<?xml version="1.0"?>
<opencv_storage>
<strawberrydetector type_id="opencv-haar-classifier">
  <size>
    40 40</size>
  <stages>
    <_>
      <trees>
        <_>
          <_>
            <feature>
              <rects>
                <_>
                  0 0 33 29 -1.</_>
                <_>
                  11 0 11 29 3.</_></rects>
              <tilted>0</tilted></feature>
            <threshold>-0.0461709797382355</threshold>
            <left_val>-1.</left_val>
            <right_val>1.0000009536743164</right_val></_></_></trees>
      <stage_threshold>1.0000009536743164</stage_threshold>
      <parent>-1</parent>
      <next>-1</next></_>
    <_>
      <trees>
        <_>
          <_>
            <feature>
              <rects>
                <_>
                  0 0 4 40 -1.</_>
                <_>
                  1 0 2 40 2.</_></rects>
              <tilted>0</tilted></feature>
            <threshold>-5.8582671917974949e-003</threshold>
            <left_val>-1.</left_val>
            <right_val>1.0000009536743164</right_val></_></_></trees>
      <stage_threshold>1.0000009536743164</stage_threshold>
      <parent>0</parent>
      <next>-1</next></_>
    <_>
      <trees>
        <_>
          <_>
            <feature>
              <rects>
                <_>
                  0 1 6 6 -1.</_>
                <_>
                  2 1 2 6 3.</_></rects>
              <tilted>0</tilted></feature>
            <threshold>4.7456561587750912e-003</threshold>
            <left_val>1.</left_val>
            <right_val>-1.0000009536743164</right_val></_></_></trees>
      <stage_threshold>1.</stage_threshold>
      <parent>1</parent>
      <next>-1</next></_>
    <_>
      <trees>
        <_>
          <_>
            <feature>
              <rects>
                <_>
                  0 0 39 22 -1.</_>
                <_>
                  13 0 13 22 3.</_></rects>
              <tilted>0</tilted></feature>
            <threshold>0.0479052811861038</threshold>
            <left_val>-1.</left_val>
            <right_val>1.0000009536743164</right_val></_></_></trees>
      <stage_threshold>1.0000009536743164</stage_threshold>
      <parent>2</parent>
      <next>-1</next></_>
    <_>
      <trees>
        <_>
          <_>
            <feature>
              <rects>
                <_>
                  0 9 2 6 -1.</_>
                <_>
                  0 9 1 3 2.</_>
                <_>
                  1 12 1 3 2.</_></rects>
              <tilted>0</tilted></feature>
            <threshold>4.2863900307565928e-004</threshold>
            <left_val>1.</left_val>
            <right_val>-1.0000009536743164</right_val></_></_></trees>
      <stage_threshold>1.</stage_threshold>
      <parent>3</parent>
      <next>-1</next></_>
    <_>
      <trees>
        <_>
          <_>
            <feature>
              <rects>
                <_>
                  4 10 18 24 -1.</_>
                <_>
                  4 10 9 12 2.</_>
                <_>
                  13 22 9 12 2.</_></rects>
              <tilted>0</tilted></feature>
            <threshold>-1.5179170295596123e-003</threshold>
            <left_val>1.</left_val>
            <right_val>-1.0000009536743164</right_val></_></_></trees>
      <stage_threshold>1.</stage_threshold>
      <parent>4</parent>
      <next>-1</next></_>
    <_>
      <trees>
        <_>
          <_>
            <feature>
              <rects>
                <_>
                  0 0 40 39 -1.</_>
                <_>
                  20 0 20 39 2.</_></rects>
              <tilted>0</tilted></feature>
            <threshold>-0.3252129852771759</threshold>
            <left_val>-1.</left_val>
            <right_val>1.</right_val></_></_></trees>
      <stage_threshold>1.</stage_threshold>
      <parent>5</parent>
      <next>-1</next></_>
    <_>
      <trees>
        <_>
          <_>
            <feature>
              <rects>
                <_>
                  0 0 1 4 -1.</_>
                <_>
                  0 1 1 2 2.</_></rects>
              <tilted>0</tilted></feature>
            <threshold>3.8493450847454369e-004</threshold>
            <left_val>1.</left_val>
            <right_val>-1.0000009536743164</right_val></_></_></trees>
      <stage_threshold>1.</stage_threshold>
      <parent>6</parent>
      <next>-1</next></_>
    <_>
      <trees>
        <_>
          <_>
            <feature>
              <rects>
                <_>
                  0 0 28 3 -1.</_>
                <_>
                  14 0 14 3 2.</_></rects>
              <tilted>0</tilted></feature>
            <threshold>0.0403595790266991</threshold>
            <left_val>1.</left_val>
            <right_val>-1.0000009536743164</right_val></_></_></trees>
      <stage_threshold>1.</stage_threshold>
      <parent>7</parent>
      <next>-1</next></_>
    <_>
      <trees>
        <_>
          <_>
            <feature>
              <rects>
                <_>
                  0 0 15 36 -1.</_>
                <_>
                  5 12 5 12 9.</_></rects>
              <tilted>0</tilted></feature>
            <threshold>-0.2938078045845032</threshold>
            <left_val>-1.</left_val>
            <right_val>1.0000009536743164</right_val></_></_></trees>
      <stage_threshold>1.0000009536743164</stage_threshold>
      <parent>8</parent>
      <next>-1</next></_></stages></strawberrydetector>
</opencv_storage>
